/* 
 *  ALFA BETA GAMMA { 3, 33, 3 } input range 300..700  GOOD
 *  
3 33| bias:1.00
1  W:-5.6580643  W:-0.1386165  W:-6.7588987 
2  W:-4.2831487  W:-0.2318600  W:-7.2534918 
3  W:-5.6012921  W:-0.1097903  W:-7.3706369 
4  W:-5.2246937  W: 0.1578790  W:-6.2512631 
5  W:-4.1772704  W:-0.0825703  W:-6.0720577 
6  W:-4.5166525  W:-0.7980113  W:-6.3866138 
7  W:-5.4667038  W: 0.1157241  W:-5.5653791 
8  W:-4.9034972  W: 0.5572928  W:-6.2206678 
9  W:-5.6559739  W: 0.0048537  W:-7.2106318 
10  W:-4.7895851  W:-0.5759194  W:-6.5125026 
11  W:-4.8002476  W:-0.2746556  W:-6.9665293 
12  W:-5.3400688  W: 0.7799422  W:-6.2024364 
13  W:-4.5307230  W:-0.1866017  W:-6.7126150 
14  W:-4.8205633  W: 0.0120576  W:-7.4266257 
15  W:-4.7136349  W: 1.2458549  W:-6.6290102 
16  W:-5.3962411  W: 0.6349045  W:-6.1769595 
17  W:-5.0213551  W: 0.6862940  W:-7.2751722 
18  W:-4.9369540  W: 0.5964221  W:-5.6648507 
19  W:-5.5209274  W:-0.0565517  W:-6.5889763 
20  W:-4.9297785  W:-0.3557455  W:-7.0155720 
21  W:-4.1411690  W:-0.3144031  W:-6.2587323 
22  W:-5.3411631  W:-0.7341409  W:-7.0716643 
23  W:-5.7460112  W: 0.3931558  W:-8.2835521 
24  W:-4.1231164  W: 0.5283456  W:-6.0667366 
25  W:-4.8099160  W:-0.0584411  W:-8.0694646 
26  W:-5.8861708  W: 0.0400949  W:-7.0474758 
27  W:-5.6244301  W: 0.8792432  W:-7.4136571 
28  W:-4.4091596  W:-0.3860577  W:-6.5453224 
29  W:-4.9844264  W: 0.9936145  W:-6.8745927 
30  W:-5.0096178  W: 0.8920900  W:-7.3183584 
31  W:-5.7189545  W: 0.5158994  W:-6.2498335 
32  W:-4.9219193  W: 0.0179375  W:-5.6017112 
33  W:-5.4903516  W: 0.4843178  W:-7.7409930 
----------------------
33 3| bias:1.11
1  W: 0.3914671  W:-0.1181762  W: 0.2352666  W:-0.3172906  W:-0.1237776  W: 0.5117683  W:-0.8517044  W:-0.7667741  W: 0.2206022  W:-0.5033455  W:-0.3868394  W: 0.2694430  W:-0.1662559  W: 0.1604353  W: 0.3808463  W:-0.1887895  W: 0.6423605  W:-0.7765977  W:-0.2678248  W: 0.4746328  W:-0.6315617  W: 0.1261624  W: 0.9810969  W: 0.1565060  W: 0.6919917  W: 0.2837050  W: 0.2979214  W:-0.1182801  W:-0.5007307  W:-0.1637459  W:-0.5239415  W:-0.7643356  W: 0.1451806 
2  W: 0.1234591  W: 0.2193537  W: 0.7509992  W: 0.1278114  W:-0.8605331  W:-0.8861738  W:-0.2732006  W:-0.6093512  W: 0.0280949  W:-0.3919951  W:-0.6579404  W: 0.1041742  W:-0.5831215  W: 0.4061676  W: 0.7855095  W:-0.0739692  W: 0.8448687  W:-0.5226017  W:-0.4320672  W:-0.3678800  W:-0.2104372  W:-0.5475015  W: 0.7201236  W:-0.2877940  W: 0.4151693  W: 0.5398392  W: 0.3463364  W:-1.0356599  W: 0.5951716  W:-0.2531746  W: 0.2898707  W: 0.1908300  W: 0.3475306 
3  W:-0.1371481  W:-0.2769062  W: 0.0407810  W: 0.5391655  W:-0.5719537  W:-0.6855689  W:-0.5910231  W: 0.1636382  W:-0.3499565  W: 0.3414675  W: 0.2000927  W:-0.6217978  W: 0.4694934  W:-0.0587269  W:-0.6529029  W: 0.5553237  W:-0.3413122  W:-0.7200244  W:-0.2482035  W:-0.1078026  W:-0.8074540  W: 0.4496009  W: 0.8105041  W:-0.7139596  W: 0.0950112  W:-0.0218868  W:-0.0400047  W: 0.4895127  W: 0.5989411  W: 0.2008687  W: 0.3600936  W:-0.5095416  W: 0.7225785 
-----------


**************************************************

ALFA BETA GAMMA TANH  ... non lo so se è non good ... perchè era sbagliato il loop 
... da riprovare !!!

999100: alfa 457 (400), beta 473 (547), gamma 466 (452)	x: 87.93, y: 9.61, z: 138.01  	MSE: 0.0111429
999200: alfa 314 (253), beta 605 (690), gamma 696 (547)	x: 21.63, y: 13.20, z: 192.42  	MSE: 0.0134330
999300: alfa 831 (696), beta 65 (439), gamma 799 (639)	x: 137.05, y: -31.04, z: 95.47  	MSE: 0.0087532
999400: alfa 683 (733), beta 469 (501), gamma 342 (314)	x: 68.52, y: -2.21, z: 5.05  	MSE: 0.0080207
999500: alfa 724 (825), beta 336 (124), gamma 814 (941)	x: 56.60, y: -141.44, z: 136.64  	MSE: 0.0106136
999600: alfa 627 (524), beta 382 (371), gamma 708 (658)	x: 93.65, y: -43.13, z: 167.96  	MSE: 0.0111345
999700: alfa 349 (363), beta 609 (777), gamma 646 (591)	x: 39.57, y: 42.00, z: 188.74  	MSE: 0.0091880
999800: alfa 251 (242), beta 744 (771), gamma 936 (894)	x: -63.04, y: -64.49, z: 204.52  	MSE: 0.0099048
999900: alfa 906 (852), beta 537 (414), gamma 865 (840)	x: 154.64, y: -47.75, z: 90.03  	MSE: 0.0061980
1000000: alfa 291 (239), beta 630 (787), gamma 638 (568)	x: 9.23, y: 10.42, z: 197.36  	MSE: 0.0080393

----------------------
3 32| bias:1.00
1  W:-2.7668926  W:-0.4741367  W:-6.0493702 
2  W: 2.5858016  W:-2.1793003  W:-7.8690128 
3  W:-3.6913790  W:-0.9262738  W:-8.0880947 
4  W:-2.2486004  W:-0.3158635  W:-4.7393493 
5  W:-2.1869299  W:-0.2278593  W:-5.3591866 
6  W:-2.5440022  W:-0.6827636  W:-5.6107187 
7  W:-5.0302906  W: 1.6732769  W:-5.4311676 
8  W:-3.1148490  W: 0.4274783  W:-6.1021180 
9  W:-2.2497363  W:-0.1830069  W:-4.8866591 
10  W:-4.3785176  W:-3.0761594  W:-5.4484739 
11  W:-5.2601428  W:-0.6420740  W:-7.8191914 
12  W:-2.1854012  W: 5.0782108  W: 1.3378405 
13  W:-2.2002098  W:-0.2329583  W:-5.8290224 
14  W:-3.5707399  W:-1.2388544  W:-8.2048120 
15  W:-1.7005276  W: 0.2180174  W:-4.7423839 
16  W:-3.8425552  W: 0.9853981  W:-5.1695036 
17  W:-2.2429845  W: 0.4684446  W:-6.3134074 
18  W:-2.3390278  W:-0.4191396  W:-4.6232833 
19  W:-3.8749475  W:-0.0765410  W:-6.7505660 
20  W:-2.2870581  W:-0.5159276  W:-5.5619497 
21  W:-2.2112419  W:-0.7615780  W:-5.7668161 
22  W:-7.4174966  W:-3.8830120  W:-6.1713099 
23  W:-2.1346564  W: 0.7031002  W:-7.3386478 
24  W: 0.9485166  W: 0.5507037  W: 0.6990687 
25  W:-2.1595094  W:-1.0247217  W:-7.3515276 
26  W:-3.5398185  W:-0.8178505  W:-5.4296479 
27  W:-3.0926454  W:-0.2903719  W:-6.2756171 
28  W:-2.1364245  W:-0.3217400  W:-4.8072457 
29  W:-2.4899144  W: 0.9904594  W:-6.6293606 
30  W:-3.0883572  W: 3.9233283  W:-7.8131384 
31  W:-3.8369701  W: 0.1737720  W:-5.9093666 
32  W: 0.7539247  W:-2.7610006  W: 4.1158885 
----------------------
32 3| bias:0.48
1  W: 0.3249675  W:-1.5792473  W:-1.9640679  W: 1.9233380  W: 1.0725102  W: 1.1004559  W: 0.8274279  W: 0.7335498  W: 1.9292606  W: 0.6175698  W:-4.3111028  W:-2.4069306  W: 0.7323541  W:-2.3414514  W: 2.1249482  W: 0.8653159  W: 0.7379022  W: 2.1479823  W: 0.1544406  W: 1.7008018  W: 0.5826584  W:-1.7846561  W: 0.0903804  W:-2.2733972  W:-0.1013209  W: 1.6066415  W: 0.5589627  W: 1.9458989  W: 0.6511116  W:-2.7659156  W: 0.7535672  W:-3.8504881 
2  W:-0.2582786  W: 0.3629907  W: 0.4316796  W:-0.2632285  W:-0.1497646  W: 0.2375637  W: 1.7326704  W: 0.2874980  W:-0.3999751  W:-0.9526604  W: 0.6846975  W: 1.2492372  W:-0.3649886  W: 0.7920195  W:-0.8102188  W: 0.8059972  W:-0.5234004  W: 0.2681509  W: 0.8450939  W: 0.0652474  W: 0.4248547  W:-1.3950158  W:-0.7686560  W: 0.0092121  W: 0.4600485  W:-0.1253873  W: 0.5343598  W:-0.2048646  W:-0.2835736  W:-2.0781466  W: 0.3395848  W:-1.0196210 
3  W: 1.2331171  W:-3.6052205  W: 0.5233350  W: 1.8751848  W: 1.3449010  W: 0.9107959  W:-0.5910013  W: 0.1545072  W: 1.6661933  W:-1.0286524  W:-0.4606058  W:-1.9678048  W: 1.4084177  W:-0.2650460  W: 1.7106150  W: 0.2987864  W: 0.1304884  W: 1.8899697  W:-0.0953317  W: 0.2142902  W: 2.0067884  W:-3.1461534  W:-0.4373584  W:-0.1168751  W: 0.1161070  W:-0.2815170  W: 0.8376515  W: 1.8346053  W:-0.5498270  W:-3.4441277  W:-0.1241841  W:-2.6554381 
----------------------
-----------



TANH, 
inputs[0] = xmm/NORMALIZATION_FACTOR_MM; 
inputs[1] = ymm/NORMALIZATION_FACTOR_MM; 

inputs[0] = (inputs[0]*inputs[0]) + (inputs[1]*inputs[1]);  // meta coordinata
inputs[1] = zmm/NORMALIZATION_FACTOR_MM;

alfa1024 =  output[0] * NORMALIZATION_FACTOR_ABG;
gamma1024 = output[1] * NORMALIZATION_FACTOR_ABG; 
 
beta1024 = map((atan2(y2mm, x2mm) * 18000)/ PI, -9000, 9000, 0, 1023);
 


#define NORMALIZATION_FACTOR_ABG 2000.0
#define NORMALIZATION_FACTOR_MM  200.0

const unsigned int layers[] = { 2, 18, 9, 2 };  // 5 layers (1st)layer with 3 input neurons (2nd, 3rd e 4th)layer with 5,4,3 hidden neurons and (5th)layer with 3 output neuron

4500: alfa 299 (347), beta  (165), gamma 802 (784)  x: -1.99, y: 3.58, z: 223.64    MSE: 0.0030413
4600: alfa 297 (522), beta  (482), gamma 852 (927)  x: 37.11, y: -3.38, z: 228.14   MSE: 0.0043025
4700: alfa 703 (720), beta  (402), gamma 203 (150)  x: 15.28, y: -5.34, z: 3.89   MSE: 0.0019318

----------------------
2 18| bias:1.00
1  W:-0.5436816  W:-0.3779100 
2  W: 0.3633984  W: 0.7535304 
3  W:-0.6290807  W:-0.5531642 
4  W:-0.5175986  W:-0.6499471 
5  W:-0.3031589  W:-0.3833005 
6  W:-0.3362528  W: 0.7306959 
7  W: 0.5367239  W: 0.0227041 
8  W: 0.6163804  W: 0.0854537 
9  W:-1.0565251  W: 0.7879553 
10  W:-0.3063934  W:-0.1417484 
11  W: 0.5839606  W:-0.1882129 
12  W: 0.4805025  W:-0.0700605 
13  W:-0.4094785  W:-0.1499927 
14  W:-0.4175662  W: 0.0133388 
15  W:-0.7847359  W: 0.0273672 
16  W: 0.1123697  W:-0.1834576 
17  W:-0.3794120  W:-0.6102335 
18  W: 0.4514676  W: 1.0453943 
----------------------
18 9| bias:1.00
1  W: 0.3093756  W:-0.3093917  W: 0.0653861  W: 0.2879108  W:-0.3808222  W:-0.3940637  W: 0.3132078  W: 0.6925896  W: 0.7542057  W:-0.5831515  W: 0.3515765  W: 0.8401865  W: 0.1013354  W: 0.1629225  W: 0.2494143  W: 0.1109431  W: 0.4667578  W: 0.4785294 
2  W:-0.4899579  W: 0.1150564  W:-0.1939625  W:-0.0866339  W:-0.3938128  W: 0.2591213  W: 0.7786435  W:-0.5405838  W: 0.4166774  W:-0.4743968  W:-0.7268278  W:-0.2276597  W:-0.4144835  W: 0.0615696  W:-0.3003654  W: 0.6530099  W: 0.3018079  W: 1.0050845 
3  W: 0.4295405  W:-0.3686509  W:-0.5907507  W:-0.6923015  W:-0.2042181  W: 0.0641622  W:-0.3666810  W: 0.8427924  W:-0.4897636  W: 0.3836822  W:-0.2054214  W: 0.2973039  W: 0.2071684  W: 0.4837468  W: 0.0163454  W: 0.1325945  W: 0.9774445  W:-0.7187816 
4  W:-0.6351766  W: 0.1187821  W: 0.5493280  W: 0.2445297  W:-0.3772781  W: 0.8109336  W:-0.2851535  W: 0.2441511  W:-0.7790385  W: 0.6680061  W:-0.3350766  W:-0.0051568  W: 0.1618558  W: 0.0755871  W: 0.8212673  W:-0.6525276  W:-0.7006458  W:-0.2734935 
5  W:-0.4798057  W:-0.7190370  W: 0.7127618  W:-0.0467109  W:-0.1085175  W: 0.7436408  W: 0.4298452  W: 0.7583622  W:-0.7166809  W:-0.4991236  W: 0.5730672  W:-0.8015369  W: 0.1028678  W: 0.8361933  W: 0.5181319  W: 0.3723083  W: 0.2572370  W:-0.0373500 
6  W: 0.1084286  W:-0.3911787  W:-0.5496938  W:-0.2248014  W:-0.5131105  W:-0.1981911  W: 0.1170401  W: 0.5139194  W: 0.8323434  W: 0.4697741  W:-0.6529259  W:-0.6484289  W:-0.1015231  W:-0.6341008  W:-0.3264025  W:-0.0783605  W:-0.7839875  W: 0.0965906 
7  W:-0.3304545  W: 0.5744038  W: 0.8749627  W: 0.0202151  W: 0.8989024  W:-0.4211304  W:-0.6836882  W:-0.2980614  W: 0.3486294  W:-0.4979954  W: 0.5746715  W:-0.0089763  W: 0.4867755  W: 0.5357682  W:-0.1377713  W:-0.7974467  W: 0.6902255  W:-0.7224998 
8  W: 0.3287202  W: 0.6104455  W: 0.0639207  W:-0.1704347  W:-0.3100161  W:-0.3362454  W: 0.8661509  W:-0.4611206  W:-0.8575891  W:-0.5526222  W: 0.3628178  W:-0.6700544  W: 0.5375938  W: 0.2454048  W:-0.8178916  W: 0.7856809  W:-0.1809823  W:-0.9243065 
9  W: 0.8013617  W:-0.6614992  W:-0.8006253  W:-0.4030292  W:-0.1419565  W:-0.9478043  W: 0.6345563  W: 0.6502568  W:-0.8285296  W:-0.1120173  W:-0.2171388  W:-0.3794611  W: 0.8074257  W: 0.6500661  W: 0.0455421  W: 0.5138044  W:-0.4977511  W: 0.6182054 
----------------------
9 2| bias:0.66
1  W: 0.0944512  W:-0.7976943  W: 0.6140416  W: 0.1760090  W:-0.4594903  W:-0.0791539  W:-0.4314728  W: 0.3244773  W: 0.5769538 
2  W:-0.1583299  W:-0.6454044  W:-0.0112696  W: 0.0516935  W: 0.5473368  W: 0.6701210  W:-0.4838004  W: 0.3242279  W: 0.7933002 
----------------------

 LEARNING COMPLETE, PRESS ANY KEY TO CONTINUE








  // normalizzazione 
  inputs[0] = sqrt((x2mm*x2mm) + (y2mm*y2mm))/NORMALIZATION_FACTOR_MM; // meta coordinata
  inputs[1] = z2mm/NORMALIZATION_FACTOR_MM;
  output = NN.FeedForward(inputs);  // FeedForwards the input arrays through the NN | stores the output array internally

  alfa1024 =  output[0] * NORMALIZATION_FACTOR_ABG;
  beta1024 = map((atan2(y2mm, x2mm) * 18000)/ PI, -9000, 9000, 0, 1023);
  gamma1024 = output[1] * NORMALIZATION_FACTOR_ABG; 
 
29300: alfa 261 (245), beta  (377), gamma 245 (302)  x: 59.08, y: -25.90, z: 124.15    MSE: 0.0015464
29400: alfa 93 (157), beta  (990), gamma 547 (541)  x: -1.13, y: -11.13, z: 193.49    MSE: 0.0015317
29500: alfa 650 (974), beta  (296), gamma 174 (173) x: -20.58, y: 16.04, z: 3.69    MSE: 0.0009288

----------------------
2 18| bias:1.00
1  W:-0.6860646  W:-0.3749950 
2  W: 0.3914448  W: 0.7889216 
3  W:-0.7039105  W:-0.6927099 
4  W:-0.5241857  W:-0.7933716 
5  W:-0.3838204  W:-0.4641044 
6  W:-0.2249741  W: 0.7241969 
7  W: 0.5858576  W: 0.1284339 
8  W: 0.4187087  W: 0.0710989 
9  W:-1.6099979  W: 0.8499733 
10  W:-0.4333912  W:-0.1684108 
11  W: 0.5437390  W:-0.4002853 
12  W: 0.6091814  W:-0.2785488 
13  W:-0.5476962  W:-0.2345921 
14  W:-0.4423711  W:-0.0154347 
15  W:-0.8880439  W:-0.0287045 
16  W: 0.1766935  W:-0.1036068 
17  W:-0.1053359  W:-0.5731315 
18  W: 0.6798972  W: 1.0644047 
----------------------
18 9| bias:1.00
1  W: 0.3086472  W:-0.3109566  W: 0.0648807  W: 0.2874043  W:-0.3816650  W:-0.3955187  W: 0.3118038  W: 0.6911505  W: 0.7527854  W:-0.5841815  W: 0.3501777  W: 0.8388100  W: 0.1004116  W: 0.1618442  W: 0.2485745  W: 0.1097084  W: 0.4659521  W: 0.4768975 
2  W:-0.6257753  W: 0.2440698  W:-0.3977745  W:-0.2348012  W:-0.4911895  W: 0.2527439  W: 0.9302192  W:-0.4005730  W: 0.1825352  W:-0.5461311  W:-0.6077418  W:-0.1092561  W:-0.5309916  W:-0.0318143  W:-0.4886993  W: 0.7103791  W: 0.2250561  W: 1.1712387 
3  W: 0.3861494  W:-0.3881359  W:-0.6172375  W:-0.7486250  W:-0.1908398  W: 0.0576294  W:-0.3694760  W: 0.8390613  W:-0.5832667  W: 0.3866434  W:-0.2167573  W: 0.2904974  W: 0.2034902  W: 0.4989038  W: 0.0135941  W: 0.1374692  W: 0.9518418  W:-0.7591570 
4  W:-0.6948287  W: 0.0732176  W: 0.5264945  W: 0.2208583  W:-0.3914395  W: 0.7598209  W:-0.3210012  W: 0.2055654  W:-0.9400753  W: 0.6300001  W:-0.3781173  W:-0.0443835  W: 0.1141473  W: 0.0345332  W: 0.7594642  W:-0.6815859  W:-0.7170319  W:-0.3267738 
5  W:-0.4909606  W:-0.7426207  W: 0.7080262  W:-0.0472349  W:-0.1222160  W: 0.7201555  W: 0.4062204  W: 0.7355308  W:-0.7408422  W:-0.5174956  W: 0.5552189  W:-0.8212276  W: 0.0855431  W: 0.8154433  W: 0.4972658  W: 0.3525476  W: 0.2515550  W:-0.0599064 
6  W: 0.1551791  W:-0.4115454  W:-0.4727066  W:-0.1997240  W:-0.4860183  W:-0.2149386  W: 0.0549816  W: 0.4696040  W: 0.7365360  W: 0.4712077  W:-0.7334232  W:-0.7427973  W:-0.0808047  W:-0.6239739  W:-0.2957884  W:-0.1248321  W:-0.7856171  W: 0.0796654 
7  W:-0.3038416  W: 0.5134656  W: 0.8496556  W: 0.0089498  W: 0.8515346  W:-0.4449631  W:-0.7231345  W:-0.3416547  W: 0.5593485  W:-0.5110960  W: 0.5632273  W:-0.0193690  W: 0.4932917  W: 0.5295287  W:-0.1017369  W:-0.8271635  W: 0.6694114  W:-0.7866168 
8  W: 0.2885865  W: 0.6228966  W: 0.0872350  W:-0.1664624  W:-0.2837354  W:-0.3135256  W: 0.8344362  W:-0.4896384  W:-1.0012897  W:-0.5609953  W: 0.3166218  W:-0.7099395  W: 0.5236249  W: 0.2475618  W:-0.8384285  W: 0.7673513  W:-0.1695421  W:-0.9127489 
9  W: 0.8519001  W:-0.6679534  W:-0.6927727  W:-0.3048114  W:-0.0593426  W:-0.9324775  W: 0.6305344  W: 0.6473045  W:-0.8948011  W:-0.0683952  W:-0.2069406  W:-0.3706054  W: 0.8561907  W: 0.6952116  W: 0.0892435  W: 0.5397724  W:-0.4091214  W: 0.6014555 
----------------------
9 2| bias:0.11
1  W: 0.2643215  W:-0.7811937  W: 0.5641305  W: 0.1137965  W:-0.2659602  W: 0.0603536  W:-0.1438085  W: 0.1949426  W: 0.6717788 
2  W:-0.1510553  W:-0.3355525  W:-0.0954658  W: 0.1002911  W: 0.5658153  W: 0.4892636  W:-0.3566356  W: 0.2192324  W: 0.7625903 
----------------------

 LEARNING COMPLETE, PRESS ANY KEY TO CONTINUE




----------------------
const PROGMEM float biases[] = { 1.0000000000, 1.0000000000, 0.1088151216 };
const PROGMEM float weights[] = { 
-0.6860645294, -0.3749949693, 
 0.3914447784,  0.7889215946, 
-0.7039104461, -0.6927099227, 
-0.5241856575, -0.7933715820, 
-0.3838203430, -0.4641043663, 
-0.2249741077,  0.7241969108, 
 0.5858575820,  0.1284338951, 
 0.4187087059,  0.0710988759, 
-1.6099979877,  0.8499732971, 
-0.4333911895, -0.1684107875, 
 0.5437389373, -0.4002852916, 
 0.6091814517, -0.2785488128, 
-0.5476961612, -0.2345921516, 
-0.4423710823, -0.0154347109, 
-0.8880438804, -0.0287045478, 
 0.1766935110, -0.1036068201, 
-0.1053358435, -0.5731315135, 
 0.6798972129,  1.0644047260
, 
 0.3086471796, -0.3109565973,  0.0648807048,  0.2874043273, -0.3816649913, -0.3955187606,  0.3118038177,  0.6911504745,  0.7527854442, -0.5841815471,  0.3501777172,  0.8388099670,  0.1004115939,  0.1618442440,  0.2485745191,  0.1097084407,  0.4659520149,  0.4768974304, 
-0.6257753372,  0.2440698385, -0.3977744865, -0.2348012208, -0.4911894798,  0.2527439117,  0.9302192687, -0.4005730152,  0.1825352287, -0.5461310863, -0.6077417850, -0.1092561483, -0.5309916019, -0.0318142747, -0.4886993408,  0.7103791236,  0.2250561237,  1.1712387800, 
 0.3861493587, -0.3881358909, -0.6172375202, -0.7486250400, -0.1908398246,  0.0576294374, -0.3694759607,  0.8390612602, -0.5832667350,  0.3866434097, -0.2167572736,  0.2904973983,  0.2034901618,  0.4989038467,  0.0135941088,  0.1374692201,  0.9518417358, -0.7591569900, 
-0.6948287487,  0.0732175445,  0.5264945507,  0.2208582878, -0.3914394855,  0.7598209381, -0.3210011720,  0.2055653572, -0.9400753021,  0.6300000667, -0.3781172752, -0.0443834972,  0.1141472578,  0.0345332050,  0.7594641685, -0.6815858840, -0.7170318603, -0.3267737627, 
-0.4909605979, -0.7426207065,  0.7080261707, -0.0472348737, -0.1222160339,  0.7201554775,  0.4062203884,  0.7355307579, -0.7408422470, -0.5174956321,  0.5552189350, -0.8212275505,  0.0855430603,  0.8154432296,  0.4972657680,  0.3525476455,  0.2515549898, -0.0599063968, 
 0.1551790809, -0.4115454196, -0.4727065563, -0.1997239875, -0.4860182762, -0.2149386167,  0.0549816322,  0.4696039676,  0.7365360260,  0.4712077140, -0.7334231853, -0.7427972793, -0.0808046722, -0.6239738941, -0.2957884025, -0.1248321294, -0.7856171131,  0.0796654319, 
-0.3038415908,  0.5134655952,  0.8496555328,  0.0089497861,  0.8515346527, -0.4449630737, -0.7231344699, -0.3416546583,  0.5593485355, -0.5110959529,  0.5632272720, -0.0193689556,  0.4932916641,  0.5295286655, -0.1017368555, -0.8271635055,  0.6694114208, -0.7866168498, 
 0.2885865020,  0.6228966236,  0.0872350406, -0.1664623641, -0.2837353706, -0.3135255813,  0.8344362258, -0.4896384239, -1.0012897253, -0.5609952926,  0.3166217803, -0.7099394798,  0.5236249446,  0.2475618362, -0.8384284973,  0.7673512458, -0.1695421314, -0.9127489089, 
 0.8519000053, -0.6679534435, -0.6927726745, -0.3048113822, -0.0593425703, -0.9324775695,  0.6305344104,  0.6473044872, -0.8948010444, -0.0683952045, -0.2069406509, -0.3706054449,  0.8561906814,  0.6952116489,  0.0892434978,  0.5397724151, -0.4091213226,  0.6014554977
, 
 0.2643215417, -0.7811936855,  0.5641304969,  0.1137965440, -0.2659602165,  0.0603535652, -0.1438084697,  0.1949425792,  0.6717787742, 
-0.1510553121, -0.3355524778, -0.0954658412,  0.1002910852,  0.5658152580,  0.4892635822, -0.3566356182,  0.2192324161,  0.7625902175
 };




 */
